{"learner":{"attributes":{},"gradient_booster":{"model":{"gbtree_model_param":{"num_trees":"10","size_leaf_vector":"0"},"tree_info":[0,0,0,0,0,0,0,0,0,0],"trees":[{"base_weights":[1.698084E1,1.3056795E1,3.942594E1,2.0683893E1,1.1756721E1,3.4252506E1,4.9595036E1,1.8069551E1,2.4932842E1,1.0604273E1,2.0116335E1,4.2537792E1,3.316265E1,4.986753E1,1.5256286E1,2.4353737E1,5.2178585E1,1.0546044E1,1.0753971E1,2.0145178E1,1.9936855E1,3.9958775E1,4.7864662E1,3.170928E1,3.7508762E1,4.929642E1,8.364166E1,1.3403549E1,5.0066017E1,3.4921917E1,2.3509909E1,4.2806034E1,6.0407166E1,1.084068E1,1.0503114E1,4.6613976E1,6.2180218E1,3.1746443E1,3.1244476E1,3.7017544E1,3.872001E1,4.5009533E1,5.124753E1,8.97589E1,3.899928E1,1.8559471E1,1.1596289E1,5.4251083E1,8.266927E0,3.334784E1,4.0182327E1,2.2146656E1,2.8546463E1,5.7665257E1,8.794361E1,1.0827391E1,1.0971394E1,4.5755096E1,5.0167072E1,5.7227642E1,7.205702E1,3.162713E1,3.207219E1,3.9496494E1,3.6495552E1,4.2924698E1,4.5425602E1,5.0830822E1,5.3272663E1,7.456572E1,1.0550461E2,3.3983738E1,7.420182E1,1.0236744E1,1.7131485E2,1.132424E1,2.086049E1,7.1291664E1,4.221304E1,2.4003906E0,1E1],"categories":[],"categories_nodes":[],"categories_segments":[],"categories_sizes":[],"default_left":[true,true,true,true,true,true,true,false,true,true,true,true,true,true,true,true,true,false,true,false,false,false,true,true,true,true,true,true,true,true,true,false,true,true,false,true,true,true,false,false,true,true,true,true,true,true,true,true,true,false,false,false,false,false,false,false,false,false,false,false,false,false,false,false,false,false,false,false,false,false,false,false,false,false,false,false,false,false,false,false,false],"id":0,"left_children":[1,3,5,7,9,11,13,-1,15,17,19,21,23,25,27,29,31,-1,33,-1,-1,-1,35,37,39,41,43,45,47,49,51,-1,53,55,-1,57,59,61,-1,-1,63,65,67,69,71,73,75,77,79,-1,-1,-1,-1,-1,-1,-1,-1,-1,-1,-1,-1,-1,-1,-1,-1,-1,-1,-1,-1,-1,-1,-1,-1,-1,-1,-1,-1,-1,-1,-1,-1],"loss_changes":[8.952781E7,8.579184E6,7.956272E6,1.399216E6,7.121512E6,9.03944E5,4.76496E5,0E0,7.55986E5,5.552E3,6.4E1,1.58164E5,5.58528E5,9.71928E5,2.5319719E4,4.18284E5,7.438275E4,0E0,3.842E3,0E0,0E0,0E0,6.5066E4,1.56E2,1.1778E4,4.1392E5,2.25893E5,3.3629297E3,3.0501562E3,2.74175E4,2.98216E5,0E0,3.4869375E4,1.17E2,0E0,8.3705E3,1.0648875E4,1.372E3,0E0,0E0,9.585E3,1.1558E4,2.6136E4,1.68683E5,1.5664E4,1.22837734E5,4.8710156E2,6.829961E2,6.4974976E0,0E0,0E0,0E0,0E0,0E0,0E0,0E0,0E0,0E0,0E0,0E0,0E0,0E0,0E0,0E0,0E0,0E0,0E0,0E0,0E0,0E0,0E0,0E0,0E0,0E0,0E0,0E0,0E0,0E0,0E0,0E0,0E0],"parents":[2147483647,0,0,1,1,2,2,3,3,4,4,5,5,6,6,8,8,9,9,10,10,11,11,12,12,13,13,14,14,15,15,16,16,18,18,22,22,23,23,24,24,25,25,26,26,27,27,28,28,29,29,30,30,32,32,33,33,35,35,36,36,37,37,40,40,41,41,42,42,43,43,44,44,45,45,46,46,47,47,48,48],"right_children":[2,4,6,8,10,12,14,-1,16,18,20,22,24,26,28,30,32,-1,34,-1,-1,-1,36,38,40,42,44,46,48,50,52,-1,54,56,-1,58,60,62,-1,-1,64,66,68,70,72,74,76,78,80,-1,-1,-1,-1,-1,-1,-1,-1,-1,-1,-1,-1,-1,-1,-1,-1,-1,-1,-1,-1,-1,-1,-1,-1,-1,-1,-1,-1,-1,-1,-1,-1],"split_conditions":[1.30181675E1,1.2249353E1,1.90532E1,3.7559416E0,1.2641357E1,1.8408978E1,8.8805534E1,5.4208655E0,7.9281974E0,1.5E0,2.5E0,1.3382822E1,1.8797943E1,3.1652014E1,1.0210327E2,5.807123E0,8.517722E0,3.1638134E0,4.5E0,6.043554E0,5.9810567E0,1.1987633E1,1.408782E1,4.5E0,1.5E0,2.499099E1,7.648021E1,9.7751724E1,1.7265176E2,4.895487E0,6.5911307E0,1.2841811E1,1.0550671E1,3.5E0,3.1509342E0,1.3741399E1,1.4428165E1,1.5E0,9.373343E0,1.1105264E1,4.5E0,1.9308456E1,3.1190119E1,3.7790367E1,8.7152435E1,9.337587E1,1.0190878E2,1.06090164E2,1.5E0,1.0004353E1,1.2054699E1,6.643997E0,8.563939E0,1.7299578E1,2.6383085E1,3.2482173E0,3.2914183E0,1.3726529E1,1.5050122E1,1.7168293E1,2.1617107E1,9.488139E0,9.621657E0,1.18489485E1,1.0948666E1,1.287741E1,1.3627681E1,1.5249248E1,1.5981799E1,2.2369717E1,3.1651384E1,1.0195122E1,2.2260548E1,3.0710232E0,5.139446E1,3.397272E0,6.2581477E0,2.13875E1,1.2663913E1,7.201172E-1,3E0],"split_indices":[1,1,1,1,1,1,1,0,1,0,0,1,1,1,1,1,1,0,0,0,0,0,1,0,0,1,1,1,1,1,1,0,1,0,0,1,1,0,0,0,0,1,1,1,1,1,1,1,0,0,0,0,0,0,0,0,0,0,0,0,0,0,0,0,0,0,0,0,0,0,0,0,0,0,0,0,0,0,0,0,0],"split_type":[0,0,0,0,0,0,0,0,0,0,0,0,0,0,0,0,0,0,0,0,0,0,0,0,0,0,0,0,0,0,0,0,0,0,0,0,0,0,0,0,0,0,0,0,0,0,0,0,0,0,0,0,0,0,0,0,0,0,0,0,0,0,0,0,0,0,0,0,0,0,0,0,0,0,0,0,0,0,0,0,0],"sum_hessian":[1.016493E6,8.65228E5,1.51265E5,1.26002E5,7.39226E5,1.00262E5,5.1003E4,7.8009E4,4.7993E4,6.49666E5,8.956E4,1.1651E4,8.8611E4,5.0601E4,4.02E2,4.6996E4,9.97E2,4.67782E5,1.81884E5,7.7064E4,1.2496E4,7.856E3,3.795E3,6.6411E4,2.22E4,4.9762E4,8.39E2,3.83E2,1.9E1,3.472E3,4.3524E4,4.69E2,5.28E2,1.35133E5,4.6751E4,3.494E3,3.01E2,6.1432E4,4.979E3,1.5817E4,6.383E3,1.5572E4,3.419E4,7.37E2,1.02E2,9.7E1,2.86E2,1.7E1,2E0,2.678E3,7.94E2,3.4257E4,9.267E3,4.83E2,4.5E1,1.22738E5,1.2395E4,2.825E3,6.69E2,2.05E2,9.6E1,4.5035E4,1.6397E4,4.719E3,1.664E3,2.608E3,1.2964E4,2.8377E4,5.813E3,3.78E2,3.59E2,9.1E1,1.1E1,9.3E1,4E0,2.8E2,6E0,5E0,1.2E1,1E0,1E0],"tree_param":{"num_deleted":"0","num_feature":"2","num_nodes":"81","size_leaf_vector":"0"}},{"base_weights":[1.1887092E1,9.1399E0,2.7600723E1,1.4479512E1,8.229738E0,2.397817E1,3.4721348E1,1.4089469E1,2.8565758E1,7.423011E0,1.4081568E1,2.9783281E1,2.321456E1,3.4912785E1,1.1012899E1,1.2648756E1,1.6609053E1,2.6008278E1,4.236759E1,7.3822374E0,7.527833E0,1.4101703E1,1.3956277E1,2.7972666E1,3.3523064E1,2.2196924E1,2.6257662E1,3.4488705E1,5.8317173E1,9.708969E0,4.2515358E1,1.2669268E1,1.2453795E1,2.4451693E1,1.59464035E1,2.5216394E1,2.9991545E1,3.8833073E1,5.5180637E1,7.5885243E0,7.352247E0,3.2638016E1,4.365458E1,2.222282E1,2.1873014E1,2.5912983E1,2.7107576E1,3.1508375E1,3.5847775E1,6.166988E1,2.631637E1,1.368803E1,8.2398615E0,1.3118124E2,2.7858883E1,1.2654485E1,1.2931421E1,2.3347221E1,2.8142792E1,1.5502853E1,1.8155252E1,3.9338284E1,3.1746906E1,5.7311447E1,2.0316166E1,7.5792E0,7.6802406E0,3.2033424E1,3.5139412E1,4.0142693E1,5.0662773E1,2.21392E1,2.245112E1,2.7650055E1,2.5553461E1,3.0052223E1,3.1798971E1,3.558211E1,3.7153114E1,5.1850826E1,7.334416E1,2.1127306E1,1.0719157E2,7.7846217E0,1.3019928E2,7.9390574E0,1.5174959E1,-4.308494E0,3.3139133E1],"categories":[],"categories_nodes":[],"categories_segments":[],"categories_sizes":[],"default_left":[true,true,true,true,true,true,true,true,true,true,true,true,true,true,true,true,true,true,true,false,true,false,false,false,true,true,true,true,true,true,true,true,false,true,true,false,false,true,true,true,false,true,true,true,false,false,true,true,true,true,true,true,true,false,true,false,false,false,false,false,false,false,false,false,false,false,false,false,false,false,false,false,false,false,false,false,false,false,false,false,false,false,false,false,false,false,false,false,false],"id":1,"left_children":[1,3,5,7,9,11,13,15,17,19,21,23,25,27,29,31,33,35,37,-1,39,-1,-1,-1,41,43,45,47,49,51,53,55,-1,57,59,-1,-1,61,63,65,-1,67,69,71,-1,-1,73,75,77,79,81,83,85,-1,87,-1,-1,-1,-1,-1,-1,-1,-1,-1,-1,-1,-1,-1,-1,-1,-1,-1,-1,-1,-1,-1,-1,-1,-1,-1,-1,-1,-1,-1,-1,-1,-1,-1,-1],"loss_changes":[4.388013E7,4.204816E6,3.901048E6,6.91888E5,3.48966E6,4.43756E5,2.31108E5,4.44864E5,1.1869925E5,2.72E3,2.8E1,7.7962E4,2.73832E5,5.00164E5,1.6428785E4,1.54E2,2.31398E5,8.283875E3,2.1814438E4,0E0,1.882E3,0E0,0E0,0E0,3.26135E4,7E1,5.802E3,2.00164E5,9.483025E4,2.19625E3,1.7137906E4,1.09E2,0E0,1.350125E4,4.0014E4,0E0,0E0,2.475625E2,7.1560938E3,5.75E1,0E0,4.16E3,5.3990625E3,6.76E2,0E0,0E0,4.6755E3,5.634E3,1.0512E4,8.93915E4,3.424632E4,7.120686E4,4.8658203E2,0E0,2.6905566E3,0E0,0E0,0E0,0E0,0E0,0E0,0E0,0E0,0E0,0E0,0E0,0E0,0E0,0E0,0E0,0E0,0E0,0E0,0E0,0E0,0E0,0E0,0E0,0E0,0E0,0E0,0E0,0E0,0E0,0E0,0E0,0E0,0E0,0E0],"parents":[2147483647,0,0,1,1,2,2,3,3,4,4,5,5,6,6,7,7,8,8,9,9,10,10,11,11,12,12,13,13,14,14,15,15,16,16,17,17,18,18,20,20,24,24,25,25,26,26,27,27,28,28,29,29,30,30,31,31,33,33,34,34,37,37,38,38,39,39,41,41,42,42,43,43,46,46,47,47,48,48,49,49,50,50,51,51,52,52,54,54],"right_children":[2,4,6,8,10,12,14,16,18,20,22,24,26,28,30,32,34,36,38,-1,40,-1,-1,-1,42,44,46,48,50,52,54,56,-1,58,60,-1,-1,62,64,66,-1,68,70,72,-1,-1,74,76,78,80,82,84,86,-1,88,-1,-1,-1,-1,-1,-1,-1,-1,-1,-1,-1,-1,-1,-1,-1,-1,-1,-1,-1,-1,-1,-1,-1,-1,-1,-1,-1,-1,-1,-1,-1,-1,-1,-1],"split_conditions":[1.30181675E1,1.2249353E1,1.90532E1,7.290052E0,1.2641357E1,1.8408978E1,8.766295E1,3.7559416E0,8.517722E0,1.5E0,2.5E0,1.3382822E1,1.8797943E1,3.1506153E1,1.05895676E2,3.5E0,5.807123E0,7.9281974E0,9.587376E0,2.2146714E0,4.5E0,4.230511E0,4.1868834E0,8.3918E0,1.408782E1,4.5E0,1.5E0,2.499099E1,7.682056E1,9.7751724E1,1.06090164E2,2.5E0,3.7361388E0,4.895487E0,6.5911307E0,7.5649185E0,8.997464E0,4.5E0,1.1635519E1,3.5E0,2.2056742E0,1.3741399E1,1.4428165E1,1.5E0,6.5619044E0,7.7738953E0,4.5E0,1.9308456E1,3.1190119E1,3.7790367E1,8.7152435E1,9.337587E1,1.0190878E2,3.9354374E1,1.07791885E2,3.7963455E0,3.8794265E0,7.0041666E0,8.442838E0,4.650856E0,5.446576E0,1.1801485E1,9.524073E0,1.7193436E1,6.09485E0,2.27376E0,2.3040724E0,9.610027E0,1.0541824E1,1.2042809E1,1.51988325E1,6.6417603E0,6.7353363E0,8.295017E0,7.6660385E0,9.015667E0,9.539692E0,1.0674634E1,1.1145935E1,1.5555248E1,2.200325E1,6.338192E0,3.215747E1,2.3353865E0,3.9059784E1,2.3817172E0,4.552488E0,-1.2925483E0,9.94174E0],"split_indices":[1,1,1,1,1,1,1,1,1,0,0,1,1,1,1,0,1,1,1,0,0,0,0,0,1,0,0,1,1,1,1,0,0,1,1,0,0,0,1,0,0,1,1,0,0,0,0,1,1,1,1,1,1,0,1,0,0,0,0,0,0,0,0,0,0,0,0,0,0,0,0,0,0,0,0,0,0,0,0,0,0,0,0,0,0,0,0,0,0],"split_type":[0,0,0,0,0,0,0,0,0,0,0,0,0,0,0,0,0,0,0,0,0,0,0,0,0,0,0,0,0,0,0,0,0,0,0,0,0,0,0,0,0,0,0,0,0,0,0,0,0,0,0,0,0,0,0,0,0,0,0,0,0,0,0,0,0,0,0,0,0,0,0,0,0,0,0,0,0,0,0,0,0,0,0,0,0,0,0,0,0],"sum_hessian":[1.016493E6,8.65228E5,1.51265E5,1.26002E5,7.39226E5,1.00262E5,5.1003E4,1.22609E5,3.393E3,6.49666E5,8.956E4,1.1651E4,8.8611E4,5.0594E4,4.09E2,7.8009E4,4.46E4,2.865E3,5.28E2,4.67782E5,1.81884E5,7.7064E4,1.2496E4,7.856E3,3.795E3,6.6411E4,2.22E4,4.9696E4,8.98E2,3.94E2,1.5E1,7.0525E4,7.484E3,3.472E3,4.1128E4,2.396E3,4.69E2,4.17E2,1.11E2,1.35133E5,4.6751E4,3.494E3,3.01E2,6.1432E4,4.979E3,1.5817E4,6.383E3,1.5572E4,3.4124E4,8.12E2,8.6E1,1.04E2,2.9E2,1E0,1.4E1,6.6807E4,3.718E3,2.678E3,7.94E2,3.4257E4,6.871E3,3.85E2,3.2E1,1.04E2,7E0,1.22738E5,1.2395E4,2.825E3,6.69E2,2.05E2,9.6E1,4.5035E4,1.6397E4,4.719E3,1.664E3,2.608E3,1.2964E4,2.8377E4,5.747E3,4.44E2,3.68E2,8.2E1,4E0,1E2,4E0,2.8E2,1E1,2E0,1.2E1],"tree_param":{"num_deleted":"0","num_feature":"2","num_nodes":"89","size_leaf_vector":"0"}},{"base_weights":[8.321385E0,6.3980637E0,1.9322569E1,1.0136437E1,5.76084E0,1.6785711E1,2.4309114E1,9.86293E0,2.0014055E1,5.1961217E0,9.857191E0,2.0864439E1,1.624992E1,2.2057055E1,2.529825E1,8.854276E0,1.1626909E1,1.8211573E1,2.974165E1,5.167571E0,5.2695208E0,9.867178E0,9.726787E0,1.9581934E1,2.3523287E1,1.5537278E1,1.8381432E1,2.1040012E1,2.2260015E1,2.5515608E1,8.862746E0,8.868597E0,8.718156E0,1.7120634E1,1.1162727E1,1.7654633E1,2.1013226E1,2.8039627E1,4.7003323E1,5.312001E0,5.1466203E0,1.9675104E1,1.9053339E1,2.3153967E1,3.9703583E1,-5.4896336E0,1.5540526E1,1.813958E1,1.8977802E1,2.583438E1,2.1854681E1,2.5183882E1,4.7315678E1,7.9914007E0,3.2760975E1,8.839173E0,8.964866E0,1.634567E1,1.9710575E1,1.0852133E1,1.2709469E1,1.7824272E1,1.6583189E1,2.86939E1,1.983848E1,5.2366344E1,1.4983173E1,5.3054585E0,5.376354E0,1.9525373E1,2.028258E1,2.2426798E1,2.5476051E1,4.221966E1,3.7734094E-1,9.280987E0,-1.9345316E1,8.6779526E1,1.5538148E1,1.9356794E1,1.7892027E1,2.3867857E1,4.715975E1,-8.076702E0,2.1863085E1,2.5094082E1,3.4593407E1,4.927649E1,1.7665329E1,1.19669485E1,5.791732E0,1.1150406E2,2.0077831E1],"categories":[],"categories_nodes":[],"categories_segments":[],"categories_sizes":[],"default_left":[true,true,true,true,true,true,true,true,true,true,true,true,true,true,true,true,true,true,true,false,true,false,false,true,true,true,true,false,true,true,true,true,false,true,true,true,false,true,true,true,false,true,false,true,true,true,true,false,true,true,true,true,true,true,true,false,false,false,false,false,false,false,false,false,false,false,false,false,false,false,false,false,false,false,false,false,false,false,false,false,false,false,false,false,false,false,false,false,false,false,false,false,false],"id":2,"left_children":[1,3,5,7,9,11,13,15,17,19,21,23,25,27,29,31,33,35,37,-1,39,-1,-1,41,43,45,47,-1,49,51,53,55,-1,57,59,61,-1,63,65,67,-1,69,-1,71,73,75,77,-1,79,81,83,85,87,89,91,-1,-1,-1,-1,-1,-1,-1,-1,-1,-1,-1,-1,-1,-1,-1,-1,-1,-1,-1,-1,-1,-1,-1,-1,-1,-1,-1,-1,-1,-1,-1,-1,-1,-1,-1,-1,-1,-1],"loss_changes":[2.150768E7,2.061072E6,1.913132E6,3.40213E5,1.709992E6,2.1877E5,1.13058E5,2.18049E5,5.8968125E4,1.336E3,2E1,3.92245E4,1.34338E5,2.746E3,1.2635E5,7.45E1,1.135455E5,4.1009375E3,1.42239375E4,0E0,9.22E2,0E0,0E0,1.225E1,2.168075E4,4.623E3,2.858E3,0E0,1.82195E4,2.5169E5,9.400355E3,1.205E2,0E0,6.6484375E3,1.96205E4,1.40125E2,0E0,2.0278125E3,7.1147188E3,2.825E1,0E0,2.0875E2,0E0,5.67625E3,8.196734E3,2.4307708E3,9.908E3,0E0,2.28075E3,5.4021312E4,3.107E3,2.824E4,2.9536E4,3.8571484E3,1.3740598E4,0E0,0E0,0E0,0E0,0E0,0E0,0E0,0E0,0E0,0E0,0E0,0E0,0E0,0E0,0E0,0E0,0E0,0E0,0E0,0E0,0E0,0E0,0E0,0E0,0E0,0E0,0E0,0E0,0E0,0E0,0E0,0E0,0E0,0E0,0E0,0E0,0E0,0E0],"parents":[2147483647,0,0,1,1,2,2,3,3,4,4,5,5,6,6,7,7,8,8,9,9,10,10,11,11,12,12,13,13,14,14,15,15,16,16,17,17,18,18,20,20,23,23,24,24,25,25,26,26,28,28,29,29,30,30,31,31,33,33,34,34,35,35,37,37,38,38,39,39,41,41,43,43,44,44,45,45,46,46,48,48,49,49,50,50,51,51,52,52,53,53,54,54],"right_children":[2,4,6,8,10,12,14,16,18,20,22,24,26,28,30,32,34,36,38,-1,40,-1,-1,42,44,46,48,-1,50,52,54,56,-1,58,60,62,-1,64,66,68,-1,70,-1,72,74,76,78,-1,80,82,84,86,88,90,92,-1,-1,-1,-1,-1,-1,-1,-1,-1,-1,-1,-1,-1,-1,-1,-1,-1,-1,-1,-1,-1,-1,-1,-1,-1,-1,-1,-1,-1,-1,-1,-1,-1,-1,-1,-1,-1,-1],"split_conditions":[1.30181675E1,1.2249353E1,1.90532E1,7.290052E0,1.2641357E1,1.6464153E1,2.499099E1,3.7559416E0,8.517722E0,1.5E0,4.5E0,1.3382822E1,1.8797943E1,1.9308456E1,8.292244E1,3.5E0,5.807123E0,7.9281974E0,1.0550671E1,1.5502714E0,4.5E0,2.9601536E0,2.918036E0,2.5E0,1.4428165E1,1.7460875E1,1.5E0,6.312004E0,2.2973236E1,3.74014E1,1.05895676E2,1.5E0,2.6154468E0,4.895487E0,6.5911307E0,2.5E0,6.303968E0,4.5E0,1.1635519E1,3.5E0,1.5439862E0,1.5E0,5.716002E0,1.3741399E1,4.5E0,1.7041523E1,1.7740444E1,5.441874E0,4.5E0,1.9800741E1,2.4200905E1,3.1506153E1,4.5E0,9.7751724E1,1.06090164E2,2.651752E0,2.6894598E0,4.9037013E0,5.9131727E0,3.25564E0,3.8128407E0,5.347282E0,4.974957E0,8.6081705E0,5.9515443E0,1.5709904E1,4.494952E0,1.5916376E0,1.6129063E0,5.857612E0,6.084774E0,6.7280397E0,7.6428156E0,1.2665899E1,1.1320229E-1,2.784296E0,-5.803595E0,2.603386E1,4.6614447E0,5.8070383E0,5.367608E0,7.1603575E0,1.4147926E1,-2.4230108E0,6.5589256E0,7.528225E0,1.0378022E1,1.4782948E1,5.2995987E0,3.5900848E0,1.7375196E0,3.3451218E1,6.02335E0],"split_indices":[1,1,1,1,1,1,1,1,1,0,0,1,1,1,1,0,1,1,1,0,0,0,0,0,1,1,0,0,1,1,1,0,0,1,1,0,0,0,1,0,0,0,0,1,0,1,1,0,0,1,1,1,0,1,1,0,0,0,0,0,0,0,0,0,0,0,0,0,0,0,0,0,0,0,0,0,0,0,0,0,0,0,0,0,0,0,0,0,0,0,0,0,0],"split_type":[0,0,0,0,0,0,0,0,0,0,0,0,0,0,0,0,0,0,0,0,0,0,0,0,0,0,0,0,0,0,0,0,0,0,0,0,0,0,0,0,0,0,0,0,0,0,0,0,0,0,0,0,0,0,0,0,0,0,0,0,0,0,0,0,0,0,0,0,0,0,0,0,0,0,0,0,0,0,0,0,0,0,0,0,0,0,0,0,0,0,0,0,0],"sum_hessian":[1.016493E6,8.65228E5,1.51265E5,1.26002E5,7.39226E5,1.00262E5,5.1003E4,1.22609E5,3.393E3,6.49666E5,8.956E4,1.1637E4,8.8625E4,1.5572E4,3.5431E4,7.8009E4,4.46E4,2.865E3,5.28E2,4.67782E5,1.81884E5,8.312E4,6.44E3,7.856E3,3.781E3,6.6425E4,2.22E4,2.608E3,1.2964E4,3.4968E4,4.63E2,7.0525E4,7.484E3,3.472E3,4.1128E4,2.396E3,4.69E2,4.83E2,4.5E1,1.35133E5,4.6751E4,6.648E3,1.208E3,3.699E3,8.2E1,1E1,6.6415E4,1.5817E4,6.383E3,1.314E3,1.165E4,3.4446E4,5.22E2,4.48E2,1.5E1,5.4087E4,1.6438E4,2.678E3,7.94E2,3.4257E4,6.871E3,2.055E3,3.41E2,4.45E2,3.8E1,3.8E1,7E0,1.22738E5,1.2395E4,5.36E3,1.288E3,2.825E3,8.74E2,7.7E1,5E0,5E0,5E0,1E0,6.6414E4,4.719E3,1.664E3,1.205E3,1.09E2,3E0,1.1647E4,3.4124E4,3.22E2,4.89E2,3.3E1,1.58E2,2.9E2,1E0,1.4E1],"tree_param":{"num_deleted":"0","num_feature":"2","num_nodes":"93","size_leaf_vector":"0"}},{"base_weights":[5.825258E0,4.4787474E0,1.3527145E1,7.096119E0,4.032604E0,1.1750887E1,1.7018625E1,6.9042616E0,1.402498E1,3.6372945E0,6.9000993E0,1.4608957E1,1.1375444E1,1.5441977E1,1.7711111E1,6.198095E0,8.139237E0,1.2753902E1,2.0884872E1,3.617303E0,3.6886904E0,6.9111314E0,6.8315163E0,1.44009905E1,2.2754858E1,1.0876512E1,1.2867751E1,1.4730428E1,1.5583973E1,1.7869417E1,6.5246997E0,6.2071247E0,6.080946E0,1.1987557E1,7.814081E0,1.2362549E1,1.472267E1,1.9972912E1,4.0079605E1,3.7184243E0,3.6026669E0,1.3709601E1,1.595116E1,2.055263E1,2.7946472E1,-4.117224E0,1.0878831E1,1.26980505E1,1.3286213E1,1.8100267E1,1.5298632E1,1.765735E1,3.7159447E1,5.8832717E0,2.5399843E1,6.1874704E0,6.2649026E0,1.1443799E1,1.380484E1,7.5965877E0,8.8971815E0,1.247959E1,1.1622779E1,1.884997E1,2.496643E1,5.2089386E1,1.1050089E1,3.7138338E0,3.763578E0,1.3774369E1,1.3342066E1,1.570114E1,1.6981915E1,2.9716143E1,2.8300667E-1,6.9607415E0,-1.4508986E1,7.37626E1,1.0876774E1,1.3550986E1,1.2527644E1,1.7121971E1,4.4129158E1,-6.2594433E0,1.5304722E1,1.7566076E1,2.4777107E1,3.1622004E1,5.5657692E1,1.1404091E1,4.669449E0,9.477846E1,1.4456038E1],"categories":[],"categories_nodes":[],"categories_segments":[],"categories_sizes":[],"default_left":[true,true,true,true,true,true,true,true,true,true,true,true,true,true,true,true,true,true,true,false,true,false,false,true,true,true,true,false,true,true,true,true,false,true,true,true,false,true,true,true,false,true,true,false,true,true,true,false,true,true,true,true,true,true,true,false,false,false,false,false,false,false,false,false,false,false,false,false,false,false,false,false,false,false,false,false,false,false,false,false,false,false,false,false,false,false,false,false,false,false,false,false,false],"id":3,"left_children":[1,3,5,7,9,11,13,15,17,19,21,23,25,27,29,31,33,35,37,-1,39,-1,-1,41,43,45,47,-1,49,51,53,55,-1,57,59,61,-1,63,65,67,-1,69,71,-1,73,75,77,-1,79,81,83,85,87,89,91,-1,-1,-1,-1,-1,-1,-1,-1,-1,-1,-1,-1,-1,-1,-1,-1,-1,-1,-1,-1,-1,-1,-1,-1,-1,-1,-1,-1,-1,-1,-1,-1,-1,-1,-1,-1,-1,-1],"loss_changes":[1.0541664E7,1.01032E6,9.37916E5,1.67406E5,8.37925E5,1.07421E5,5.5413E4,1.068775E5,2.9327438E4,6.54E2,2.05E1,1.9388E4,6.5847E4,1.344E3,6.263E4,4.475E1,5.571575E4,2.0261875E3,8.4595625E3,0E0,4.5175E2,0E0,0E0,1.1947E4,2.7183594E3,2.355E3,1.40775E3,0E0,9.03175E3,1.42262E5,5.855664E3,4.35E1,0E0,3.2739062E3,9.621E3,6.25E1,0E0,2.3723438E3,7.443086E3,1.4E1,0E0,3.375E0,6.340625E2,0E0,4.054875E3,1.3673087E3,7.791E3,0E0,1.1125E3,3.2729531E4,1.6255E3,2.2024E4,3.7062125E4,3.1700742E3,1.0778136E4,0E0,0E0,0E0,0E0,0E0,0E0,0E0,0E0,0E0,0E0,0E0,0E0,0E0,0E0,0E0,0E0,0E0,0E0,0E0,0E0,0E0,0E0,0E0,0E0,0E0,0E0,0E0,0E0,0E0,0E0,0E0,0E0,0E0,0E0,0E0,0E0,0E0,0E0],"parents":[2147483647,0,0,1,1,2,2,3,3,4,4,5,5,6,6,7,7,8,8,9,9,10,10,11,11,12,12,13,13,14,14,15,15,16,16,17,17,18,18,20,20,23,23,24,24,25,25,26,26,28,28,29,29,30,30,31,31,33,33,34,34,35,35,37,37,38,38,39,39,41,41,42,42,44,44,45,45,46,46,48,48,49,49,50,50,51,51,52,52,53,53,54,54],"right_children":[2,4,6,8,10,12,14,16,18,20,22,24,26,28,30,32,34,36,38,-1,40,-1,-1,42,44,46,48,-1,50,52,54,56,-1,58,60,62,-1,64,66,68,-1,70,72,-1,74,76,78,-1,80,82,84,86,88,90,92,-1,-1,-1,-1,-1,-1,-1,-1,-1,-1,-1,-1,-1,-1,-1,-1,-1,-1,-1,-1,-1,-1,-1,-1,-1,-1,-1,-1,-1,-1,-1,-1,-1,-1,-1,-1,-1,-1],"split_conditions":[1.30181675E1,1.2249353E1,1.90532E1,7.290052E0,1.2641357E1,1.6464153E1,2.499099E1,3.7559416E0,8.517722E0,1.5E0,2.5E0,1.408782E1,1.8797943E1,1.9308456E1,7.682056E1,4.5E0,5.807123E0,7.9281974E0,1.1000412E1,1.0851909E0,4.5E0,2.0733395E0,2.049455E0,1.3382822E1,1.4428165E1,1.7460875E1,1.5E0,4.4191284E0,2.2973236E1,3.7668816E1,1.05895676E2,1.5E0,1.8242838E0,4.895487E0,6.5911307E0,2.5E0,4.416801E0,9.587376E0,1.1635519E1,3.5E0,1.0808E0,2.5E0,1.3741399E1,6.165789E0,4.5E0,1.7041523E1,1.7740444E1,3.8094153E0,4.5E0,2.0043844E1,2.4200905E1,3.1506153E1,5.6059555E1,8.751709E1,1.06090164E2,1.8562412E0,1.8794708E0,3.4331398E0,4.1414523E0,2.2789764E0,2.6691546E0,3.7438772E0,3.4868338E0,5.654991E0,7.4899297E0,1.5626817E1,3.3150268E0,1.1141502E0,1.1290734E0,4.132311E0,4.0026197E0,4.7103424E0,5.0945745E0,8.914844E0,8.4902E-2,2.0882225E0,-4.352696E0,2.2128782E1,3.2630322E0,4.065296E0,3.7582934E0,5.1365914E0,1.3238748E1,-1.877833E0,4.591417E0,5.269823E0,7.4331326E0,9.486602E0,1.6697308E1,3.4212275E0,1.4008347E0,2.8433538E1,4.3368115E0],"split_indices":[1,1,1,1,1,1,1,1,1,0,0,1,1,1,1,0,1,1,1,0,0,0,0,1,1,1,0,0,1,1,1,0,0,1,1,0,0,1,1,0,0,0,1,0,0,1,1,0,0,1,1,1,1,1,1,0,0,0,0,0,0,0,0,0,0,0,0,0,0,0,0,0,0,0,0,0,0,0,0,0,0,0,0,0,0,0,0,0,0,0,0,0,0],"split_type":[0,0,0,0,0,0,0,0,0,0,0,0,0,0,0,0,0,0,0,0,0,0,0,0,0,0,0,0,0,0,0,0,0,0,0,0,0,0,0,0,0,0,0,0,0,0,0,0,0,0,0,0,0,0,0,0,0,0,0,0,0,0,0,0,0,0,0,0,0,0,0,0,0,0,0,0,0,0,0,0,0,0,0,0,0,0,0,0,0,0,0,0,0],"sum_hessian":[1.016493E6,8.65228E5,1.51265E5,1.26002E5,7.39226E5,1.00262E5,5.1003E4,1.22609E5,3.393E3,6.49666E5,8.956E4,1.1637E4,8.8625E4,1.5572E4,3.5431E4,7.8009E4,4.46E4,2.865E3,5.28E2,4.67782E5,1.81884E5,7.7064E4,1.2496E4,1.135E4,2.87E2,6.6425E4,2.22E4,2.608E3,1.2964E4,3.4936E4,4.95E2,7.2378E4,5.631E3,3.472E3,4.1128E4,2.396E3,4.69E2,5.06E2,2.2E1,1.35133E5,4.6751E4,7.856E3,3.494E3,2.05E2,8.2E1,1E1,6.6415E4,1.5817E4,6.383E3,1.314E3,1.165E4,3.4558E4,3.78E2,4.8E2,1.5E1,5.4087E4,1.8291E4,2.678E3,7.94E2,3.4257E4,6.871E3,2.055E3,3.41E2,4.17E2,8.9E1,1.5E1,7E0,1.22738E5,1.2395E4,6.648E3,1.208E3,2.825E3,6.69E2,7.7E1,5E0,5E0,5E0,1E0,6.6414E4,4.719E3,1.664E3,1.268E3,4.6E1,3E0,1.1647E4,3.4124E4,4.34E2,2.93E2,8.5E1,8.5E1,3.95E2,1E0,1.4E1],"tree_param":{"num_deleted":"0","num_feature":"2","num_nodes":"93","size_leaf_vector":"0"}},{"base_weights":[4.0779166E0,3.1352046E0,9.470123E0,4.967774E0,2.8228345E0,8.226296E0,1.1915037E1,4.8331304E0,9.830371E0,2.5461128E0,4.8301153E0,1.0229115E1,7.963202E0,1.1989064E1,4.488709E0,4.3387375E0,5.6977468E0,8.931795E0,1.4680065E1,2.532114E0,2.5821016E0,4.8354855E0,4.760068E0,1.00822735E1,1.5981056E1,7.6139054E0,9.00795E0,1.186376E1,2.4967506E1,3.9786723E0,1.9828037E1,4.346464E0,4.2653565E0,8.393471E0,5.469977E0,8.6568E0,1.0315268E1,1.4006965E1,2.8879278E1,2.6029139E0,2.52189E0,9.597756E0,1.1168617E1,1.441677E1,1.967096E1,-3.0879185E0,7.615563E0,8.888875E0,9.301575E0,1.0811022E1,1.2339343E1,2.1569675E1,4.8064507E1,-9.343091E0,4.4480634E0,8.056168E1,1.0408348E1,4.3386683E0,4.4853363E0,8.011941E0,9.668596E0,5.317678E0,6.228415E0,8.722345E0,7.998177E0,1.449693E1,8.084512E0,3.6040764E1,-4.110218E0,2.5996928E0,2.6345959E0,1.0992464E1,1.1894944E1,2.091559E1,2.1225357E-1,2.9569929E0,-2.0193346E1,6.2698208E1,7.6137896E0,9.486552E0,8.771608E0,1.0389008E1,1.0933768E1,1.2110256E1,1.3408322E1,2.2057787E1,-5.395581E1,5.397048E1,-4.958826E1,-2.5952566E0,-2.5018843E1,1.0286202E1,3.2721515E0,-1.0353569E1,1.4398917E1],"categories":[],"categories_nodes":[],"categories_segments":[],"categories_sizes":[],"default_left":[true,true,true,true,true,true,true,true,true,true,true,true,true,true,true,true,true,true,true,false,true,false,false,true,true,true,true,true,true,true,true,true,false,true,true,true,false,true,true,true,false,false,true,false,true,true,true,false,true,true,true,true,true,true,true,false,true,false,false,false,false,false,false,false,false,false,false,false,false,false,false,false,false,false,false,false,false,false,false,false,false,false,false,false,false,false,false,false,false,false,false,false,false,false,false],"id":4,"left_children":[1,3,5,7,9,11,13,15,17,19,21,23,25,27,29,31,33,35,37,-1,39,-1,-1,41,43,45,47,49,51,53,55,57,-1,59,61,63,-1,65,67,69,-1,-1,71,-1,73,75,77,-1,79,81,83,85,87,89,91,-1,93,-1,-1,-1,-1,-1,-1,-1,-1,-1,-1,-1,-1,-1,-1,-1,-1,-1,-1,-1,-1,-1,-1,-1,-1,-1,-1,-1,-1,-1,-1,-1,-1,-1,-1,-1,-1,-1,-1],"loss_changes":[5.167112E6,4.95278E5,4.59909E5,8.244875E4,4.105975E5,5.275E4,2.7986E4,5.238625E4,1.46593125E4,3.21E2,1.0625E1,9.668625E3,3.22735E4,8.18295E4,3.872039E3,2.5625E1,2.7339375E4,1.0010781E3,4.6513984E3,0E0,2.21375E2,0E0,0E0,5.867375E3,1.3787578E3,1.202E3,6.93625E2,2.49095E4,3.679047E4,3.105586E3,8.314959E3,5.7E1,0E0,1.6121406E3,4.71775E3,3.371875E1,0E0,1.3540156E3,5.5819727E3,6.9375E0,0E0,0E0,3.1640625E2,0E0,2.0057285E3,1.1971202E3,6.01075E3,0E0,5.425625E2,6.93125E2,8.273E3,1.674711E4,3.785714E4,1.7332853E3,3.220417E3,0E0,1.3918583E3,0E0,0E0,0E0,0E0,0E0,0E0,0E0,0E0,0E0,0E0,0E0,0E0,0E0,0E0,0E0,0E0,0E0,0E0,0E0,0E0,0E0,0E0,0E0,0E0,0E0,0E0,0E0,0E0,0E0,0E0,0E0,0E0,0E0,0E0,0E0,0E0,0E0,0E0],"parents":[2147483647,0,0,1,1,2,2,3,3,4,4,5,5,6,6,7,7,8,8,9,9,10,10,11,11,12,12,13,13,14,14,15,15,16,16,17,17,18,18,20,20,23,23,24,24,25,25,26,26,27,27,28,28,29,29,30,30,31,31,33,33,34,34,35,35,37,37,38,38,39,39,42,42,44,44,45,45,46,46,48,48,49,49,50,50,51,51,52,52,53,53,54,54,56,56],"right_children":[2,4,6,8,10,12,14,16,18,20,22,24,26,28,30,32,34,36,38,-1,40,-1,-1,42,44,46,48,50,52,54,56,58,-1,60,62,64,-1,66,68,70,-1,-1,72,-1,74,76,78,-1,80,82,84,86,88,90,92,-1,94,-1,-1,-1,-1,-1,-1,-1,-1,-1,-1,-1,-1,-1,-1,-1,-1,-1,-1,-1,-1,-1,-1,-1,-1,-1,-1,-1,-1,-1,-1,-1,-1,-1,-1,-1,-1,-1,-1],"split_conditions":[1.30181675E1,1.2249353E1,1.90532E1,7.290052E0,1.2641357E1,1.6464153E1,7.648021E1,3.7559416E0,8.517722E0,1.5E0,4.5E0,1.408782E1,1.8797943E1,3.74014E1,1.05895676E2,3.5E0,5.807123E0,7.9281974E0,1.1000412E1,7.5963426E-1,4.5E0,1.4506457E0,1.4280205E0,1.3382822E1,1.4428165E1,1.7460875E1,1.5E0,2.499099E1,6.019231E1,7.791452E1,1.06090164E2,2.5E0,1.279607E0,4.895487E0,6.5911307E0,3.5E0,3.0945804E0,4.5E0,3.5E0,3.5E0,7.56567E-1,2.879327E0,1.3741399E1,4.3250313E0,4.5E0,3E0,1.7740444E1,2.6666627E0,4.5E0,1.9557638E1,3.1190119E1,5.6910416E1,4.5E0,1.5E0,8.751709E1,2.4168507E1,1.07791885E2,1.3016006E0,1.345601E0,2.4035823E0,2.900579E0,1.5953034E0,1.8685246E0,2.6167037E0,2.3994532E0,4.349079E0,2.4253535E0,1.0812229E1,-1.2330655E0,7.799079E-1,7.903788E-1,3.2977393E0,3.5684834E0,6.2746773E0,6.3676074E-2,8.870979E-1,-6.058004E0,1.8809464E1,2.284137E0,2.8459659E0,2.6314826E0,3.1167023E0,3.2801306E0,3.633077E0,4.0224967E0,6.6173363E0,-1.6186745E1,1.6191145E1,-1.4876479E1,-7.78577E-1,-7.505653E0,3.085861E0,9.8164546E-1,-3.1060708E0,4.3196754E0],"split_indices":[1,1,1,1,1,1,1,1,1,0,0,1,1,1,1,0,1,1,1,0,0,0,0,1,1,1,0,1,1,1,1,0,0,1,1,0,0,0,0,0,0,0,1,0,0,0,1,0,0,1,1,1,0,0,1,0,1,0,0,0,0,0,0,0,0,0,0,0,0,0,0,0,0,0,0,0,0,0,0,0,0,0,0,0,0,0,0,0,0,0,0,0,0,0,0],"split_type":[0,0,0,0,0,0,0,0,0,0,0,0,0,0,0,0,0,0,0,0,0,0,0,0,0,0,0,0,0,0,0,0,0,0,0,0,0,0,0,0,0,0,0,0,0,0,0,0,0,0,0,0,0,0,0,0,0,0,0,0,0,0,0,0,0,0,0,0,0,0,0,0,0,0,0,0,0,0,0,0,0,0,0,0,0,0,0,0,0,0,0,0,0,0,0],"sum_hessian":[1.016493E6,8.65228E5,1.51265E5,1.26002E5,7.39226E5,1.00262E5,5.1003E4,1.22609E5,3.393E3,6.49666E5,8.956E4,1.1637E4,8.8625E4,5.0499E4,5.04E2,7.8009E4,4.46E4,2.865E3,5.28E2,4.67782E5,1.81884E5,8.312E4,6.44E3,1.135E4,2.87E2,6.6425E4,2.22E4,5.0018E4,4.81E2,4.89E2,1.5E1,7.0525E4,7.484E3,3.472E3,4.1128E4,2.396E3,4.69E2,5.06E2,2.2E1,1.35133E5,4.6751E4,7.856E3,3.494E3,2.05E2,8.2E1,1E1,6.6415E4,1.5817E4,6.383E3,1.5572E4,3.4446E4,4.21E2,6E1,1.6E1,4.73E2,1E0,1.4E1,6.6807E4,3.718E3,2.678E3,7.94E2,3.4257E4,6.871E3,2.168E3,2.28E2,4.66E2,4E1,1.8E1,4E0,1.22738E5,1.2395E4,2.825E3,6.69E2,7.7E1,5E0,8E0,2E0,1E0,6.6414E4,4.719E3,1.664E3,3.528E3,1.2044E4,2.8377E4,6.069E3,4.19E2,2E0,5.7E1,3E0,1.2E1,4E0,7.8E1,3.95E2,2E0,1.2E1],"tree_param":{"num_deleted":"0","num_feature":"2","num_nodes":"95","size_leaf_vector":"0"}},{"base_weights":[2.854654E0,2.194693E0,6.6295586E0,3.4779177E0,1.9759756E0,5.7588506E0,8.341055E0,3.383295E0,6.9022455E0,1.782267E0,3.381113E0,7.1625595E0,5.574367E0,8.395493E0,3.0501368E0,3.0371666E0,3.9886198E0,6.6086593E0,1.601597E1,1.7724131E0,1.8075999E0,3.387192E0,3.3433554E0,7.0584493E0,1.1171408E1,5.32976E0,6.3059316E0,8.374752E0,7.7620705E1,-6.095022E1,3.9141219E0,3.0425625E0,2.9859207E0,5.876958E0,3.8290684E0,6.255087E0,9.017104E0,1.8834513E1,-3.6498814E0,-3.0557034E0,1.7724816E0,1.1472576E1,1.8074837E0,3.380066E0,3.418016E0,6.7187953E0,7.819995E0,1.0112734E1,1.3522717E1,-1.1620989E1,5.331211E0,6.2223816E0,6.5119596E0,8.2753525E0,1.4746135E1,8.856907E1,4.6436638E1,3.7077183E1,3.1840074E0,3.029687E0,3.0847404E0,5.6092567E0,6.7716675E0,3.918206E0,2.7490265E0,6.0618534E0,7.2272696E0,8.523625E0,9.887422E0,1.5265387E1,3.9349556E1,6.3690333E0,-9.923615E0,1.8220509E0,1.7653393E0,6.763785E0,6.465813E0,7.6958904E0,8.331785E0,1.5277877E1,-5.938611E0,5.3293476E1,5.329686E0,6.6411886E0,6.141706E0,7.5681243E0,8.597856E0,1.6840803E1,1.3868967E0,6.869298E1,1.2826437E0,-1.6004292E1,5.8983276E1,-5.3320055E0,3.7907033E0],"categories":[],"categories_nodes":[],"categories_segments":[],"categories_sizes":[],"default_left":[true,true,true,true,true,true,true,true,true,true,true,true,true,true,true,true,true,true,true,true,true,true,false,true,true,true,true,true,true,false,true,true,false,true,true,true,true,true,true,false,false,false,true,false,false,true,true,false,true,false,true,false,true,true,true,false,true,true,true,false,false,false,false,false,false,false,false,false,false,false,false,false,false,false,false,false,false,false,false,false,false,false,false,false,false,false,false,false,false,false,false,false,false,false,false],"id":5,"left_children":[1,3,5,7,9,11,13,15,17,19,21,23,25,27,29,31,33,35,37,39,41,43,-1,45,47,49,51,53,55,-1,57,59,-1,61,63,65,67,69,71,-1,-1,-1,73,-1,-1,75,77,-1,79,-1,81,-1,83,85,87,-1,89,91,93,-1,-1,-1,-1,-1,-1,-1,-1,-1,-1,-1,-1,-1,-1,-1,-1,-1,-1,-1,-1,-1,-1,-1,-1,-1,-1,-1,-1,-1,-1,-1,-1,-1,-1,-1,-1],"loss_changes":[2.532367E6,2.428315E5,2.253705E5,4.080175E4,2.0120425E5,2.59245E4,1.466475E4,2.5677125E4,8.956625E3,1.59E2,9.1875E0,4.7805E3,1.582475E4,7.1833E4,2.9047447E4,1.25E1,1.34151875E4,2.7392656E3,5.888795E3,1.6E2,1.835625E2,5.375E0,0E0,2.8835E3,5.9260156E2,1.69575E3,3.416875E2,3.1841E4,1.0083672E3,0E0,1.2351555E4,2.89375E1,0E0,7.9385156E2,3.9488125E3,4.9459375E2,9.524609E1,6.135625E3,9.431879E2,0E0,0E0,0E0,1.084375E2,0E0,0E0,4.56875E1,1.57875E2,0E0,3.0966094E3,0E0,4.572375E3,0E0,2.6465625E2,1.126975E4,2.1635625E4,0E0,5.941666E3,1.3734868E4,2.6293594E3,0E0,0E0,0E0,0E0,0E0,0E0,0E0,0E0,0E0,0E0,0E0,0E0,0E0,0E0,0E0,0E0,0E0,0E0,0E0,0E0,0E0,0E0,0E0,0E0,0E0,0E0,0E0,0E0,0E0,0E0,0E0,0E0,0E0,0E0,0E0,0E0],"parents":[2147483647,0,0,1,1,2,2,3,3,4,4,5,5,6,6,7,7,8,8,9,9,10,10,11,11,12,12,13,13,14,14,15,15,16,16,17,17,18,18,19,19,20,20,21,21,23,23,24,24,25,25,26,26,27,27,28,28,30,30,31,31,33,33,34,34,35,35,36,36,37,37,38,38,42,42,45,45,46,46,48,48,50,50,52,52,53,53,54,54,56,56,57,57,58,58],"right_children":[2,4,6,8,10,12,14,16,18,20,22,24,26,28,30,32,34,36,38,40,42,44,-1,46,48,50,52,54,56,-1,58,60,-1,62,64,66,68,70,72,-1,-1,-1,74,-1,-1,76,78,-1,80,-1,82,-1,84,86,88,-1,90,92,94,-1,-1,-1,-1,-1,-1,-1,-1,-1,-1,-1,-1,-1,-1,-1,-1,-1,-1,-1,-1,-1,-1,-1,-1,-1,-1,-1,-1,-1,-1,-1,-1,-1,-1,-1,-1],"split_conditions":[1.30181675E1,1.1635519E1,1.90532E1,7.290052E0,1.2641357E1,1.7041523E1,6.964902E1,3.7559416E0,9.587376E0,1.5E0,2.5E0,1.408782E1,1.8797943E1,6.857936E1,7.346574E1,3.5E0,5.807123E0,8.517722E0,3.5E0,1.2249353E1,1.2249353E1,1.5E0,1.0030067E0,1.3382822E1,1.4428165E1,1.7460875E1,1.5E0,3.1506153E1,1.5E0,-1.8285067E1,7.648021E1,1.5E0,8.957762E-1,4.895487E0,4.5E0,7.9281974E0,9.067743E0,1.1000412E1,1.00796585E1,-9.1671103E-1,5.317445E-1,3.441773E0,4.5E0,1.0140198E0,1.0254048E0,2.5E0,1.3741399E1,3.0338204E0,4.5E0,-3.486297E0,1.7740444E1,1.8667146E0,4.5E0,2.499099E1,2.5E0,2.6570723E1,6.896833E1,7.470557E1,7.9664856E1,9.089061E-1,9.2542213E-1,1.682777E0,2.0315003E0,1.1754619E0,8.24708E-1,1.8185561E0,2.168181E0,2.5570877E0,2.9662266E0,4.579616E0,1.1804867E1,1.9107101E0,-2.9770846E0,5.466153E-1,5.296018E-1,2.0291355E0,1.939744E0,2.3087673E0,2.4995356E0,4.583363E0,-1.7815834E0,1.5988044E1,1.5989059E0,1.9923567E0,1.8425119E0,2.2704375E0,2.5793567E0,5.0522413E0,4.1606903E-1,2.0607895E1,3.8479313E-1,-4.8012877E0,1.7694984E1,-1.5996017E0,1.1372111E0],"split_indices":[1,1,1,1,1,1,1,1,1,0,0,1,1,1,1,0,1,1,0,1,1,0,0,1,1,1,0,1,0,0,1,0,0,1,0,1,1,1,1,0,0,0,0,0,0,0,1,0,0,0,1,0,0,1,0,0,1,1,1,0,0,0,0,0,0,0,0,0,0,0,0,0,0,0,0,0,0,0,0,0,0,0,0,0,0,0,0,0,0,0,0,0,0,0,0],"split_type":[0,0,0,0,0,0,0,0,0,0,0,0,0,0,0,0,0,0,0,0,0,0,0,0,0,0,0,0,0,0,0,0,0,0,0,0,0,0,0,0,0,0,0,0,0,0,0,0,0,0,0,0,0,0,0,0,0,0,0,0,0,0,0,0,0,0,0,0,0,0,0,0,0,0,0,0,0,0,0,0,0,0,0,0,0,0,0,0,0,0,0,0,0,0,0],"sum_hessian":[1.016493E6,8.65228E5,1.51265E5,1.25995E5,7.39233E5,1.00262E5,5.1003E4,1.22609E5,3.386E3,6.49673E5,8.956E4,1.1642E4,8.862E4,5.0483E4,5.2E2,7.8009E4,4.46E4,3.282E3,1.04E2,4.67788E5,1.81885E5,7.7064E4,1.2496E4,1.135E4,2.92E2,6.642E4,2.22E4,5.0469E4,1.4E1,6E0,5.14E2,7.0525E4,7.484E3,3.472E3,4.1128E4,2.865E3,4.17E2,9.1E1,1.3E1,6E0,4.67782E5,1E0,1.81884E5,6.2683E4,1.4381E4,7.856E3,3.494E3,2.05E2,8.7E1,5E0,6.6415E4,1.5817E4,6.383E3,4.9696E4,7.73E2,9E0,5E0,1E1,5.04E2,5.4087E4,1.6438E4,2.678E3,7.94E2,3.799E4,3.138E3,2.396E3,4.69E2,2.73E2,1.44E2,7.9E1,1.2E1,5E0,8E0,1.35133E5,4.6751E4,6.648E3,1.208E3,2.825E3,6.69E2,8E1,7E0,1E0,6.6414E4,4.719E3,1.664E3,1.5572E4,3.4124E4,6.68E2,1.05E2,3E0,2E0,3E0,7E0,3.3E1,4.71E2],"tree_param":{"num_deleted":"0","num_feature":"2","num_nodes":"95","size_leaf_vector":"0"}},{"base_weights":[1.9983824E0,1.5363315E0,4.641262E0,2.434806E0,1.3831923E0,4.0543118E0,5.8887935E0,2.368375E0,4.8389025E0,1.2475928E0,2.366814E0,5.015751E0,3.9314933E0,5.9296417E0,2.1238604E0,2.1260517E0,2.7921612E0,4.628958E0,1.1357065E1,1.2406878E0,1.2653445E0,2.3710616E0,2.3404295E0,5.0084033E0,4.5299454E1,3.730805E0,4.468588E0,5.8957276E0,3.2416588E1,-4.5277306E1,2.764024E0,2.129451E0,2.0819898E0,4.114939E0,2.6803958E0,4.379952E0,6.3251877E0,1.3362251E1,-2.6310878E0,-2.269952E0,1.2407378E0,9.75169E0,1.2652442E0,2.3660629E0,2.3926833E0,4.703661E0,5.6385064E0,-2.9347933E1,3.732243E0,4.4144077E0,4.9279156E0,5.910781E0,-2.0967283E1,3.6765236E1,-3.874295E1,2.712618E1,2.2278898E0,2.1250503E0,2.1818318E0,3.9271073E0,4.742721E0,2.573972E0,3.2105443E0,4.244056E0,5.0637007E0,5.9758716E0,6.9416537E0,1.0743016E1,2.8452755E1,4.7767754E0,-7.27732E0,1.2754394E0,1.2357485E0,4.6297646E0,4.8604302E0,5.65976E0,-8.715741E0,4.962577E1,3.7308047E0,4.3668575E0,4.7149687E0,4.775558E0,5.2544913E0,5.889857E0,6.801967E1,-3.988373E1,-1.4855192E1,2.8859158E1,5.7505383E1,1.5852956E0,5.7458183E1,1.8258905E0,1.4399873E1],"categories":[],"categories_nodes":[],"categories_segments":[],"categories_sizes":[],"default_left":[true,true,true,true,true,true,true,true,true,true,true,true,true,true,true,true,true,true,true,true,true,true,false,true,false,true,true,true,true,false,true,true,false,true,true,true,true,true,true,false,false,false,true,false,false,true,true,false,true,true,true,true,true,true,false,true,true,false,false,false,false,false,false,false,false,false,false,false,false,false,false,false,false,false,false,false,false,false,false,false,false,false,false,false,false,false,false,false,false,false,false,false,false],"id":6,"left_children":[1,3,5,7,9,11,13,15,17,19,21,23,25,27,29,31,33,35,37,39,41,43,-1,45,-1,47,49,51,53,-1,55,57,-1,59,61,63,65,67,69,-1,-1,-1,71,-1,-1,73,75,-1,77,79,81,83,85,87,-1,89,91,-1,-1,-1,-1,-1,-1,-1,-1,-1,-1,-1,-1,-1,-1,-1,-1,-1,-1,-1,-1,-1,-1,-1,-1,-1,-1,-1,-1,-1,-1,-1,-1,-1,-1,-1,-1],"loss_changes":[1.2412792E6,1.19045E5,1.1073925E5,2.0110938E4,9.8595125E4,1.2127625E4,7.430125E3,1.258525E4,4.582367E3,7.80625E1,4.46875E0,3.2210312E3,9.816E3,4.2815E4,1.5934635E4,7.25E0,6.5828125E3,1.3589453E3,2.9802842E3,8.475E1,1.424375E2,2.6875E0,0E0,2.210125E3,0E0,3.2688125E3,5.9565625E2,1.945975E4,2.0300703E4,0E0,6.6661797E3,1.20625E1,0E0,3.9090234E2,2.31225E3,2.448164E2,4.853125E1,3.3306855E3,5.166233E2,0E0,0E0,0E0,5.3125E1,0E0,0E0,6.8515625E1,1.2061797E3,0E0,4.198625E3,2.9671875E2,1.0471875E2,6.170625E4,2.5292334E3,7.8508906E3,0E0,8.43068E3,2.4447368E3,0E0,0E0,0E0,0E0,0E0,0E0,0E0,0E0,0E0,0E0,0E0,0E0,0E0,0E0,0E0,0E0,0E0,0E0,0E0,0E0,0E0,0E0,0E0,0E0,0E0,0E0,0E0,0E0,0E0,0E0,0E0,0E0,0E0,0E0,0E0,0E0],"parents":[2147483647,0,0,1,1,2,2,3,3,4,4,5,5,6,6,7,7,8,8,9,9,10,10,11,11,12,12,13,13,14,14,15,15,16,16,17,17,18,18,19,19,20,20,21,21,23,23,25,25,26,26,27,27,28,28,30,30,31,31,33,33,34,34,35,35,36,36,37,37,38,38,42,42,45,45,46,46,48,48,49,49,50,50,51,51,52,52,53,53,55,55,56,56],"right_children":[2,4,6,8,10,12,14,16,18,20,22,24,26,28,30,32,34,36,38,40,42,44,-1,46,-1,48,50,52,54,-1,56,58,-1,60,62,64,66,68,70,-1,-1,-1,72,-1,-1,74,76,-1,78,80,82,84,86,88,-1,90,92,-1,-1,-1,-1,-1,-1,-1,-1,-1,-1,-1,-1,-1,-1,-1,-1,-1,-1,-1,-1,-1,-1,-1,-1,-1,-1,-1,-1,-1,-1,-1,-1,-1,-1,-1,-1],"split_conditions":[1.30181675E1,1.1635519E1,1.9308456E1,7.290052E0,1.2641357E1,1.7740444E1,6.964902E1,3.7559416E0,9.587376E0,1.5E0,2.5E0,1.7460875E1,1.8797943E1,5.6059555E1,7.346574E1,4.5E0,5.807123E0,8.517722E0,3.5E0,1.2249353E1,1.2249353E1,1.5E0,7.021289E-1,1.3382822E1,1.3589837E1,1.8013935E1,1.90532E1,5.136767E1,4.5E0,-1.3583192E1,7.648021E1,2.5E0,6.2459695E-1,4.895487E0,6.5911307E0,7.9281974E0,9.067743E0,1.1000412E1,1.00796585E1,-6.809856E-1,3.7222135E-1,2.925507E0,4.5E0,7.098189E-1,7.17805E-1,1.5E0,1.7041523E1,-8.80438E0,1.8408978E1,2.5E0,1.5E0,5.0127846E1,5.535456E1,6.857936E1,-1.1622886E1,7.5118835E1,1.05895676E2,6.375151E-1,6.545496E-1,1.1781323E0,1.4228164E0,7.7219164E-1,9.631633E-1,1.273217E0,1.5191103E0,1.7927616E0,2.0824962E0,3.222905E0,8.535827E0,1.4330326E0,-2.183196E0,3.8263184E-1,3.7072456E-1,1.3889294E0,1.4581292E0,1.6979281E0,-2.6147225E0,1.4887732E1,1.1192415E0,1.3100573E0,1.4144907E0,1.4326675E0,1.5763475E0,1.7669572E0,2.0405901E1,-1.196512E1,-4.4565578E0,8.657747E0,1.7251616E1,4.7558868E-1,1.7237455E1,5.4776716E-1,4.319962E0],"split_indices":[1,1,1,1,1,1,1,1,1,0,0,1,1,1,1,0,1,1,0,1,1,0,0,1,0,1,1,1,0,0,1,0,0,1,1,1,1,1,1,0,0,0,0,0,0,0,1,0,1,0,0,1,1,1,0,1,1,0,0,0,0,0,0,0,0,0,0,0,0,0,0,0,0,0,0,0,0,0,0,0,0,0,0,0,0,0,0,0,0,0,0,0,0],"split_type":[0,0,0,0,0,0,0,0,0,0,0,0,0,0,0,0,0,0,0,0,0,0,0,0,0,0,0,0,0,0,0,0,0,0,0,0,0,0,0,0,0,0,0,0,0,0,0,0,0,0,0,0,0,0,0,0,0,0,0,0,0,0,0,0,0,0,0,0,0,0,0,0,0,0,0,0,0,0,0,0,0,0,0,0,0,0,0,0,0,0,0,0,0],"sum_hessian":[1.016493E6,8.65228E5,1.51265E5,1.25995E5,7.39233E5,1.0287E5,4.8395E4,1.22609E5,3.386E3,6.49673E5,8.956E4,1.1648E4,9.1222E4,4.7875E4,5.2E2,7.8009E4,4.46E4,3.282E3,1.04E2,4.67788E5,1.81885E5,7.7064E4,1.2496E4,1.1647E4,1E0,6.6414E4,2.4808E4,4.7815E4,6E1,6E0,5.14E2,7.2378E4,5.631E3,3.472E3,4.1128E4,2.865E3,4.17E2,9.1E1,1.3E1,6E0,4.67782E5,1E0,1.81884E5,6.2683E4,1.4381E4,7.856E3,3.791E3,2E0,6.6412E4,2.22E4,2.608E3,4.7789E4,2.6E1,5.7E1,3E0,1E1,5.04E2,6.6807E4,5.571E3,2.678E3,7.94E2,3.4257E4,6.871E3,2.396E3,4.69E2,2.73E2,1.44E2,7.9E1,1.2E1,5E0,8E0,1.35133E5,4.6751E4,5.36E3,2.496E3,3.786E3,5E0,1E0,6.6411E4,1.9181E4,3.019E3,1.789E3,8.19E2,4.7774E4,1.5E1,5E0,2.1E1,4.3E1,1.4E1,6E0,4E0,4.89E2,1.5E1],"tree_param":{"num_deleted":"0","num_feature":"2","num_nodes":"93","size_leaf_vector":"0"}},{"base_weights":[1.3989532E0,1.075466E0,3.2492635E0,1.7045536E0,9.682421E-1,2.8437207E0,4.1357837E0,1.6579129E0,3.3924506E0,8.733203E-1,1.6567926E0,3.512649E0,2.7590973E0,1.0228749E1,4.0845785E0,1.4882599E0,1.9546096E0,3.297401E0,1.1467543E1,8.684812E-1,8.85761E-1,1.6590503E0,1.6273996E0,3.5057096E0,4.2181904E1,2.61158E0,3.139764E0,8.343479E0,2.401025E1,3.9162161E0,5.0392375E0,1.4914147E0,1.4583356E0,2.8812056E0,1.8763188E0,3.0669408E0,4.655255E0,8.45256E0,1.5273294E1,-1.6862509E0,8.685176E-1,8.288937E0,8.856747E-1,1.6577562E0,1.7111903E0,3.5123582E0,-2.3478348E1,2.62964E0,2.3882637E0,3.090207E0,3.4506373E0,7.430439E0,1.2293261E1,2.1548054E1,5.293978E1,4.0904875E0,1.8476136E0,5.2867637E0,9.404025E-1,1.4875438E0,1.5605499E0,2.749414E0,3.3216937E0,1.9385922E0,1.1220326E0,2.9713712E0,3.5478213E0,4.7453957E0,-7.3479567E0,7.233785E0,1.2737991E1,2.0573528E1,-5.770788E0,8.9281E-1,8.650317E-1,1.6597607E0,1.6194507E0,3.5060482E0,3.850453E1,2.5711138E0,2.7902184E0,3.0568671E0,3.3009474E0,3.3928874E0,3.9911182E0,7.7044544E0,5.43938E0,1.2842534E1,4.843191E0,2.480622E1,-9.47851E0,4.029097E0,3.937775E1,-2.9725208E1,1.8876405E0,5.2346983E0,3.3664288E1,-3.7100673E0,2.1399307E0],"categories":[],"categories_nodes":[],"categories_segments":[],"categories_sizes":[],"default_left":[true,true,true,true,true,true,true,true,true,true,true,true,true,true,true,true,true,true,true,true,true,true,false,true,false,true,true,true,true,true,true,true,false,true,true,true,true,true,true,false,false,false,true,true,false,true,false,true,false,true,true,true,true,true,false,true,true,true,true,false,false,false,false,false,false,false,false,false,false,false,false,false,false,false,false,false,false,false,false,false,false,false,false,false,false,false,false,false,false,false,false,false,false,false,false,false,false,false,false],"id":7,"left_children":[1,3,5,7,9,11,13,15,17,19,21,23,25,27,29,31,33,35,37,39,41,43,-1,45,-1,47,49,51,53,55,57,59,-1,61,63,65,67,69,71,-1,-1,-1,73,75,-1,77,-1,79,-1,81,83,85,87,89,-1,91,93,95,97,-1,-1,-1,-1,-1,-1,-1,-1,-1,-1,-1,-1,-1,-1,-1,-1,-1,-1,-1,-1,-1,-1,-1,-1,-1,-1,-1,-1,-1,-1,-1,-1,-1,-1,-1,-1,-1,-1,-1,-1],"loss_changes":[6.084206E5,5.8360812E4,5.437175E4,9.913344E3,4.831375E4,5.865625E3,1.47704375E4,6.1687188E3,2.5618242E3,3.834375E1,3.25E0,2.9788438E3,5.165875E3,1.0062504E4,7.5476875E3,5.203125E0,3.230125E3,1.0337266E3,3.1839844E2,4.49375E1,1.08828125E2,2.765625E0,0E0,2.1726562E3,0E0,2.6159375E2,3.8570312E2,1.1672578E3,2.2070684E3,1.44224375E4,7.1528125E3,1.6546875E1,0E0,1.9248438E2,1.9297188E3,1.21171875E2,5.585449E2,3.320764E1,1.9033425E3,0E0,0E0,0E0,2.6015625E1,3.546875E0,0E0,2.4370312E3,0E0,5.7015625E2,0E0,1.4589062E2,9.6609375E1,1.1412793E2,1.9969824E2,4.784162E3,0E0,7.9814375E4,3.9889404E3,9.653453E3,2.2560227E3,0E0,0E0,0E0,0E0,0E0,0E0,0E0,0E0,0E0,0E0,0E0,0E0,0E0,0E0,0E0,0E0,0E0,0E0,0E0,0E0,0E0,0E0,0E0,0E0,0E0,0E0,0E0,0E0,0E0,0E0,0E0,0E0,0E0,0E0,0E0,0E0,0E0,0E0,0E0,0E0],"parents":[2147483647,0,0,1,1,2,2,3,3,4,4,5,5,6,6,7,7,8,8,9,9,10,10,11,11,12,12,13,13,14,14,15,15,16,16,17,17,18,18,19,19,20,20,21,21,23,23,25,25,26,26,27,27,28,28,29,29,30,30,31,31,33,33,34,34,35,35,36,36,37,37,38,38,42,42,43,43,45,45,47,47,49,49,50,50,51,51,52,52,53,53,55,55,56,56,57,57,58,58],"right_children":[2,4,6,8,10,12,14,16,18,20,22,24,26,28,30,32,34,36,38,40,42,44,-1,46,-1,48,50,52,54,56,58,60,-1,62,64,66,68,70,72,-1,-1,-1,74,76,-1,78,-1,80,-1,82,84,86,88,90,-1,92,94,96,98,-1,-1,-1,-1,-1,-1,-1,-1,-1,-1,-1,-1,-1,-1,-1,-1,-1,-1,-1,-1,-1,-1,-1,-1,-1,-1,-1,-1,-1,-1,-1,-1,-1,-1,-1,-1,-1,-1,-1,-1],"split_conditions":[1.30181675E1,1.1635519E1,1.9557638E1,7.290052E0,1.2641357E1,1.8408978E1,2.2973236E1,3.7559416E0,1.0550671E1,1.5E0,4.5E0,1.8013935E1,1.8797943E1,2.0043844E1,3.1190119E1,3.5E0,5.807123E0,8.517722E0,1.1000412E1,1.2249353E1,1.2249353E1,3.5E0,4.882199E-1,1.7740444E1,1.2654572E1,4.5E0,1.90532E1,1.9800741E1,2.276052E1,2.8941416E1,8.8805534E1,2.5E0,4.3750072E-1,4.895487E0,4.5E0,7.9281974E0,1.00796585E1,3E0,3.5E0,-5.058753E-1,2.605553E-1,2.486681E0,4.5E0,2.5E0,5.133571E-1,1.7460875E1,-7.0435047E0,1.5E0,7.164791E-1,2.5E0,3.5E0,3.5E0,4.5E0,2.2438408E1,1.5881935E1,2.5756767E1,2.9767967E1,8.7152435E1,8.9461914E1,4.4626316E-1,4.6816498E-1,8.248242E-1,9.965081E-1,5.8157766E-1,3.366098E-1,8.9141136E-1,1.0643464E0,1.4236188E0,-2.2043872E0,2.1701357E0,3.8213975E0,6.1720586E0,-1.7312366E0,2.67843E-1,2.5950953E-1,4.9792823E-1,4.8583522E-1,1.0518146E0,1.155136E1,7.713342E-1,8.370655E-1,9.170602E-1,9.9028426E-1,1.0178663E0,1.1973355E0,2.3113365E0,1.6318141E0,3.8527603E0,1.4529574E0,7.441866E0,-2.843553E0,1.2087291E0,1.1813326E1,-8.9175625E0,5.6629217E-1,1.5704095E0,1.0099287E1,-1.1130202E0,6.419792E-1],"split_indices":[1,1,1,1,1,1,1,1,1,0,0,1,1,1,1,0,1,1,1,1,1,0,0,1,0,0,1,1,1,1,1,0,0,1,0,1,1,0,0,0,0,0,0,0,0,1,0,0,0,0,0,0,0,1,0,1,1,1,1,0,0,0,0,0,0,0,0,0,0,0,0,0,0,0,0,0,0,0,0,0,0,0,0,0,0,0,0,0,0,0,0,0,0,0,0,0,0,0,0],"split_type":[0,0,0,0,0,0,0,0,0,0,0,0,0,0,0,0,0,0,0,0,0,0,0,0,0,0,0,0,0,0,0,0,0,0,0,0,0,0,0,0,0,0,0,0,0,0,0,0,0,0,0,0,0,0,0,0,0,0,0,0,0,0,0,0,0,0,0,0,0,0,0,0,0,0,0,0,0,0,0,0,0,0,0,0,0,0,0,0,0,0,0,0,0,0,0,0,0,0,0],"sum_hessian":[1.016493E6,8.65228E5,1.51265E5,1.25995E5,7.39233E5,1.0379E5,4.7475E4,1.22609E5,3.386E3,6.49673E5,8.956E4,1.1651E4,9.2139E4,3.94E2,4.7081E4,7.8009E4,4.46E4,3.348E3,3.8E1,4.67788E5,1.81885E5,8.312E4,6.44E3,1.165E4,1E0,6.6411E4,2.5728E4,3.48E2,4.6E1,4.0027E4,7.054E3,7.0525E4,7.484E3,3.472E3,4.1128E4,2.865E3,4.83E2,2.3E1,1.5E1,6E0,4.67782E5,1E0,1.81884E5,8.1139E4,1.981E3,1.1648E4,2E0,6.1432E4,4.979E3,2.22E4,3.528E3,2.85E2,6.3E1,4.4E1,2E0,3.6916E4,3.111E3,6.652E3,4.02E2,6.6807E4,3.718E3,2.678E3,7.94E2,3.799E4,3.138E3,2.396E3,4.69E2,4.8E2,3E0,2E1,3E0,1.2E1,3E0,1.35133E5,4.6751E4,7.7064E4,4.075E3,1.1647E4,1E0,4.5035E4,1.6397E4,1.9181E4,3.019E3,3.194E3,3.34E2,2.48E2,3.7E1,5.8E1,5E0,4E1,4E0,3.6853E4,6.3E1,3E0,3.108E3,6.641E3,1.1E1,8.2E1,3.2E2],"tree_param":{"num_deleted":"0","num_feature":"2","num_nodes":"99","size_leaf_vector":"0"}},{"base_weights":[9.793565E-1,7.5284994E-1,2.274949E0,1.1933128E0,6.7777586E-1,2.028164E0,3.08168E0,1.129487E0,1.9133294E0,6.113284E-1,1.1597766E0,1.9225409E0,2.2463946E0,3.021889E0,4.6392384E0,1.0418E0,1.3107573E0,1.8700013E0,6.0851445E0,6.079363E-1,6.200492E-1,1.1613528E0,1.1392552E0,2.460417E0,1.8281415E0,2.283812E0,1.7884821E0,3.177113E0,2.5788293E0,1.5016473E1,3.5397508E0,1.0370395E0,1.0525197E0,2.0173686E0,1.2390844E0,1.6839591E0,2.2588565E0,7.33103E0,-2.5367572E0,-1.2526442E0,6.0796285E-1,7.045597E0,6.1997515E-1,1.160441E0,1.1980922E0,2.4544735E0,3.5854618E1,1.8407749E0,1.6719292E0,2.1847115E0,2.425185E0,2.0210187E0,1.2728584E0,3.0846348E0,2.0898096E1,1.2906463E0,3.2758102E0,6.8875904E0,3.416388E1,5.724077E0,7.490937E-1,1.0668554E0,1.020894E0,2.0810926E0,1.3851578E0,1.1184381E0,1.5373757E0,1.6003363E0,1.9009951E0,2.0803306E0,2.7387524E0,6.42585E0,2.5638527E1,-7.139118E0,3.0854776E0,6.249687E-1,6.0552824E-1,1.1618385E0,1.1337337E0,2.3908267E0,4.8464966E0,1.8290572E0,2.3125708E0,2.1469731E0,3.8995507E0,2.9355354E0,2.2533412E0,1.9694309E0,2.1880499E1,-2.5102594E1,1.3604326E0,3.1896873E0,2.6451156E0,1.7738356E1,5.735713E1,-2.1001904E1,1.3260943E0,3.3295128E0,2.6794882E0,4.248822E0,1.4274977E1,4.543551E1,-3.1645456E1,4.3031335E0,2.5174316E1,-3.0061577E1,1.3494016E0],"categories":[],"categories_nodes":[],"categories_segments":[],"categories_sizes":[],"default_left":[true,true,true,true,true,true,true,true,true,true,true,true,true,true,true,true,true,true,true,true,true,true,false,true,true,true,true,true,true,true,true,false,true,true,true,true,true,true,true,false,false,false,true,true,false,true,false,true,false,true,true,true,true,true,true,true,true,true,true,true,true,false,false,false,false,false,false,false,false,false,false,false,false,false,false,false,false,false,false,false,false,false,false,false,false,false,false,false,false,false,false,false,false,false,false,false,false,false,false,false,false,false,false,false,false,false,false],"id":8,"left_children":[1,3,5,7,9,11,13,15,17,19,21,23,25,27,29,31,33,35,37,39,41,43,-1,45,47,49,51,53,55,57,59,-1,61,63,65,67,69,71,73,-1,-1,-1,75,77,-1,79,-1,81,-1,83,85,87,89,91,93,95,97,99,101,103,105,-1,-1,-1,-1,-1,-1,-1,-1,-1,-1,-1,-1,-1,-1,-1,-1,-1,-1,-1,-1,-1,-1,-1,-1,-1,-1,-1,-1,-1,-1,-1,-1,-1,-1,-1,-1,-1,-1,-1,-1,-1,-1,-1,-1,-1,-1],"loss_changes":[2.9829888E5,2.861E4,3.0109188E4,5.788047E3,2.367525E4,2.6656875E3,3.2856875E3,1.8383125E3,1.8428242E3,1.8859375E1,1.5703125E0,3.9591562E3,6.43125E2,2.3386875E3,1.4870658E4,2.890625E0,1.9083359E3,7.3077344E2,1.1464968E3,2.3859375E1,8.219531E1,1.3984375E0,0E0,2.2247031E3,1.28E2,4.83875E2,3.4010645E2,4.134325E4,7.9497305E3,1.922057E4,7.2130283E3,0E0,9.7578125E0,1.3703418E2,1.2311445E3,1.2167969E2,2.755703E2,1.3598359E3,3.8428537E2,0E0,0E0,0E0,1.27421875E1,1.7109375E0,0E0,1.7622109E3,0E0,3.35375E2,0E0,1.3206875E3,1.2545156E3,1.9731367E3,2.0921914E3,1.1522031E3,1.4073918E4,2.4870288E3,1.7515234E2,1.6742783E3,2.8883629E4,1.8243096E4,9.676922E3,0E0,0E0,0E0,0E0,0E0,0E0,0E0,0E0,0E0,0E0,0E0,0E0,0E0,0E0,0E0,0E0,0E0,0E0,0E0,0E0,0E0,0E0,0E0,0E0,0E0,0E0,0E0,0E0,0E0,0E0,0E0,0E0,0E0,0E0,0E0,0E0,0E0,0E0,0E0,0E0,0E0,0E0,0E0,0E0,0E0,0E0],"parents":[2147483647,0,0,1,1,2,2,3,3,4,4,5,5,6,6,7,7,8,8,9,9,10,10,11,11,12,12,13,13,14,14,15,15,16,16,17,17,18,18,19,19,20,20,21,21,23,23,24,24,25,25,26,26,27,27,28,28,29,29,30,30,32,32,33,33,34,34,35,35,36,36,37,37,38,38,42,42,43,43,45,45,47,47,49,49,50,50,51,51,52,52,53,53,54,54,55,55,56,56,57,57,58,58,59,59,60,60],"right_children":[2,4,6,8,10,12,14,16,18,20,22,24,26,28,30,32,34,36,38,40,42,44,-1,46,48,50,52,54,56,58,60,-1,62,64,66,68,70,72,74,-1,-1,-1,76,78,-1,80,-1,82,-1,84,86,88,90,92,94,96,98,100,102,104,106,-1,-1,-1,-1,-1,-1,-1,-1,-1,-1,-1,-1,-1,-1,-1,-1,-1,-1,-1,-1,-1,-1,-1,-1,-1,-1,-1,-1,-1,-1,-1,-1,-1,-1,-1,-1,-1,-1,-1,-1,-1,-1,-1,-1,-1,-1],"split_conditions":[1.30181675E1,1.1635519E1,2.499099E1,6.5911307E0,1.2641357E1,1.8797943E1,3.1506153E1,3.7559416E0,9.587376E0,1.5E0,4.5E0,1.8408978E1,4.5E0,2.8941416E1,3.2405632E1,1.5E0,5.807123E0,7.290052E0,3.5E0,1.2249353E1,1.2249353E1,3.5E0,3.4177655E-1,1.8013935E1,4.5E0,1.90532E1,2.121074E1,2.557444E1,3.1190119E1,3.1810032E1,6.964902E1,3.1111187E-1,3.5E0,3.5E0,1.5E0,1.5E0,7.9281974E0,2.5E0,1.0550671E1,-3.7579328E-1,1.8238886E-1,2.1136792E0,4.5E0,2.5E0,3.594277E-1,1.408782E1,1.0756386E1,3.5E0,5.015788E-1,3.5E0,2.2973236E1,2.0043844E1,2.4498707E1,2.5185474E1,2.7482798E1,3.0643137E1,4.5E0,3.1652014E1,2.5E0,6.019231E1,7.470557E1,3.2005665E-1,3.0626822E-1,6.243278E-1,4.1554737E-1,3.3553144E-1,4.6121272E-1,4.801009E-1,5.7029855E-1,6.240992E-1,8.2162577E-1,1.927755E0,7.6915584E0,-2.1417356E0,9.256433E-1,1.8749061E-1,1.8165848E-1,3.4855157E-1,3.4012014E-1,7.17248E-1,1.453949E0,5.487172E-1,6.9377124E-1,6.4409196E-1,1.1698653E0,8.8066065E-1,6.760024E-1,5.908293E-1,6.56415E0,-7.5307784E0,4.081298E-1,9.569062E-1,7.935347E-1,5.321507E0,1.720714E1,-6.3005714E0,3.978283E-1,9.9885386E-1,8.038465E-1,1.2746468E0,4.282493E0,1.3630653E1,-9.493637E0,1.29094E0,7.552295E0,-9.018474E0,4.048205E-1],"split_indices":[1,1,1,1,1,1,1,1,1,0,0,1,0,1,1,0,1,1,0,1,1,0,0,1,0,1,1,1,1,1,1,0,0,0,0,0,1,0,1,0,0,0,0,0,0,1,0,0,0,0,1,1,1,1,1,1,0,1,0,1,1,0,0,0,0,0,0,0,0,0,0,0,0,0,0,0,0,0,0,0,0,0,0,0,0,0,0,0,0,0,0,0,0,0,0,0,0,0,0,0,0,0,0,0,0,0,0],"split_type":[0,0,0,0,0,0,0,0,0,0,0,0,0,0,0,0,0,0,0,0,0,0,0,0,0,0,0,0,0,0,0,0,0,0,0,0,0,0,0,0,0,0,0,0,0,0,0,0,0,0,0,0,0,0,0,0,0,0,0,0,0,0,0,0,0,0,0,0,0,0,0,0,0,0,0,0,0,0,0,0,0,0,0,0,0,0,0,0,0,0,0,0,0,0,0,0,0,0,0,0,0,0,0,0,0,0,0],"sum_hessian":[1.016493E6,8.65228E5,1.51265E5,1.25995E5,7.39233E5,1.15834E5,3.5431E4,1.15738E5,1.0257E4,6.49673E5,8.956E4,7.8062E4,3.7772E4,3.4124E4,1.307E3,7.8009E4,3.7729E4,1.0153E4,1.04E2,4.67788E5,1.81885E5,8.312E4,6.44E3,1.1651E4,6.6411E4,3.4915E4,2.857E3,2.5266E4,8.858E3,1.24E2,1.183E3,5.4087E4,2.3922E4,3.472E3,3.4257E4,6.871E3,3.282E3,9.1E1,1.3E1,6E0,4.67782E5,1E0,1.81884E5,8.1139E4,1.981E3,1.165E4,1E0,6.1432E4,4.979E3,2.0536E4,1.4379E4,1.967E3,8.9E2,2.5136E4,1.3E2,3.111E3,5.747E3,8.8E1,3.6E1,6.63E2,5.2E2,1.6438E4,7.484E3,3.152E3,3.2E2,2.4395E4,9.862E3,4.966E3,1.905E3,2.396E3,8.86E2,8.8E1,3E0,7E0,6E0,1.35133E5,4.6751E4,7.7064E4,4.075E3,1.135E4,3E2,5.9948E4,1.484E3,2.0096E4,4.4E2,3.618E3,1.0761E4,1.963E3,4E0,2E0,8.88E2,2.0282E4,4.854E3,1.21E2,9E0,4E0,3.107E3,5.268E3,4.79E2,6.6E1,2.2E1,3.1E1,5E0,6.19E2,4.4E1,9E0,5.11E2],"tree_param":{"num_deleted":"0","num_feature":"2","num_nodes":"107","size_leaf_vector":"0"}},{"base_weights":[6.8561393E-1,5.270149E-1,1.5927829E0,8.354246E-1,4.7444502E-1,1.4198706E0,2.158026E0,7.906651E-1,1.3400114E0,4.2792937E-1,8.118598E-1,1.3459665E0,1.5725659E0,2.2422574E0,1.1577516E0,7.2927225E-1,9.175791E-1,1.2897848E0,3.2987115E0,4.25574E-1,4.3398467E-1,8.1296027E-1,7.975324E-1,1.7237006E0,1.2796926E0,1.5987645E0,1.2519494E0,2.2705557E0,-7.8896195E-1,1.2294382E0,-2.0843277E1,7.259338E-1,7.3678964E-1,9.707398E-1,2.7492723E-1,1.1789242E0,1.5320734E0,2.7891753E0,5.564221E0,4.3747965E-1,4.2387336E-1,8.097886E-1,8.2264817E-1,1.7183537E0,3.2001877E1,-1.9751978E1,1.2806234E0,1.5343997E0,1.7364352E0,1.4183501E0,8.8300604E-1,2.256629E0,9.198797E1,-1.2615781E0,5.019476E0,1.1961374E0,1.6237461E1,-4.2815964E1,3.7374084E1,7.4681807E-1,7.146663E-1,8.331091E-1,1.4316841E0,1.0480816E0,2.0178975E-1,1.1203324E0,1.3309952E0,1.6312078E0,9.3914086E-1,2.927591E0,-5.1057367E0,3.7595253E0,1.25658E1,4.3522072E-1,4.5981127E-1,8.285067E-1,8.0860156E-1,1.629548E0,2.6975732E0,3.0476425E1,1.279725E0,1.5018852E0,3.0133853E0,6.5527315E0,1.5774014E0,1.3789039E0,1.662918E1,-2.539133E1,9.410573E-1,2.199228E0,5.6363287E0,4.339961E1,1.431707E2,-5.5726843E0,-1.1950097E0,7.4580183E0,-1.3723477E1,1.2894071E0,-4.420413E0,2.0380463E1,-2.2387733E0,-4.5819996E1,-1.2395884E1,6.522545E1,-9.164323E0],"categories":[],"categories_nodes":[],"categories_segments":[],"categories_sizes":[],"default_left":[true,true,true,true,true,true,true,true,true,true,true,true,true,true,true,true,true,true,true,false,true,true,false,true,true,true,true,true,true,true,true,false,true,true,true,true,true,true,true,true,false,false,true,true,false,false,true,true,true,true,true,true,true,true,true,true,true,true,true,false,false,false,false,false,false,false,false,false,false,false,false,false,false,false,false,false,false,false,false,false,false,false,false,false,false,false,false,false,false,false,false,false,false,false,false,false,false,false,false,false,false,false,false,false,false],"id":9,"left_children":[1,3,5,7,9,11,13,15,17,19,21,23,25,27,29,31,33,35,37,-1,39,41,-1,43,45,47,49,51,53,55,57,-1,59,61,63,65,67,69,71,73,-1,-1,75,77,-1,-1,79,81,83,85,87,89,91,93,95,97,99,101,103,-1,-1,-1,-1,-1,-1,-1,-1,-1,-1,-1,-1,-1,-1,-1,-1,-1,-1,-1,-1,-1,-1,-1,-1,-1,-1,-1,-1,-1,-1,-1,-1,-1,-1,-1,-1,-1,-1,-1,-1,-1,-1,-1,-1,-1,-1],"loss_changes":[1.4624838E5,1.4027609E4,1.4781281E4,2.8447266E3,1.1601875E4,1.3050625E3,2.9827188E3,9.01125E2,1.0056035E3,9.078125E0,7.6171875E-1,1.9520156E3,3.1528125E2,2.8049531E3,4.3691787E3,1.4257812E0,1.2887363E3,2.6706445E2,2.7999634E2,0E0,6.2421875E0,1.8867188E0,0E0,1.8308945E3,1.3254062E3,3.0673438E2,1.7420703E2,4.0247188E4,8.381162E2,1.3529727E3,1.3112935E4,0E0,4.7734375E0,2.209504E3,1.6286877E2,5.9739258E1,1.82979E2,2.4552417E2,5.340016E2,6.6171875E0,0E0,0E0,1.0117188E0,1.00851953E3,0E0,0E0,1.7032031E3,1.1400312E3,8.504008E3,1.1578911E3,1.3829011E3,6.267875E3,6.220875E3,7.398288E1,1.153576E3,1.4415847E3,5.0490967E2,7.1700195E1,4.486222E3,0E0,0E0,0E0,0E0,0E0,0E0,0E0,0E0,0E0,0E0,0E0,0E0,0E0,0E0,0E0,0E0,0E0,0E0,0E0,0E0,0E0,0E0,0E0,0E0,0E0,0E0,0E0,0E0,0E0,0E0,0E0,0E0,0E0,0E0,0E0,0E0,0E0,0E0,0E0,0E0,0E0,0E0,0E0,0E0,0E0,0E0],"parents":[2147483647,0,0,1,1,2,2,3,3,4,4,5,5,6,6,7,7,8,8,9,9,10,10,11,11,12,12,13,13,14,14,15,15,16,16,17,17,18,18,20,20,21,21,23,23,24,24,25,25,26,26,27,27,28,28,29,29,30,30,32,32,33,33,34,34,35,35,36,36,37,37,38,38,39,39,42,42,43,43,46,46,47,47,48,48,49,49,50,50,51,51,52,52,53,53,54,54,55,55,56,56,57,57,58,58],"right_children":[2,4,6,8,10,12,14,16,18,20,22,24,26,28,30,32,34,36,38,-1,40,42,-1,44,46,48,50,52,54,56,58,-1,60,62,64,66,68,70,72,74,-1,-1,76,78,-1,-1,80,82,84,86,88,90,92,94,96,98,100,102,104,-1,-1,-1,-1,-1,-1,-1,-1,-1,-1,-1,-1,-1,-1,-1,-1,-1,-1,-1,-1,-1,-1,-1,-1,-1,-1,-1,-1,-1,-1,-1,-1,-1,-1,-1,-1,-1,-1,-1,-1,-1,-1,-1,-1,-1,-1],"split_conditions":[1.30181675E1,1.2249353E1,2.499099E1,6.5911307E0,1.2641357E1,1.8797943E1,4.5E0,3.7559416E0,9.067743E0,1.5E0,4.5E0,1.7740444E1,4.5E0,9.7751724E1,5.2291462E1,1.5E0,4.5E0,7.290052E0,1.0550671E1,1.2767221E-1,4.5E0,1.5E0,2.3925972E-1,1.7460875E1,1.8013935E1,1.9557638E1,2.121074E1,9.337587E1,1.0190878E2,4.678518E1,1.05895676E2,2.1778014E-1,3.5E0,1.5E0,5.807123E0,1.5E0,2.5E0,1.00796585E1,2.5E0,3.5E0,1.2716201E-1,2.4293658E-1,2.5E0,1.3741399E1,9.600563E0,-5.9255934E0,1.8408978E1,3.5E0,2.2973236E1,2.0043844E1,2.2942848E1,3.7668816E1,9.512621E1,1.0059604E2,1.7265176E2,3.1506153E1,4.983612E1,8.7152435E1,1.06479126E2,2.2404543E-1,2.143999E-1,2.4993274E-1,4.2950526E-1,3.144245E-1,6.053693E-2,3.360997E-1,3.9929858E-1,4.8936236E-1,2.8174227E-1,8.7827736E-1,-1.5317211E0,1.1278577E0,3.76974E0,1.3056622E-1,1.3794339E-1,2.4855202E-1,2.4258047E-1,4.888644E-1,8.09272E-1,9.142928E0,3.839175E-1,4.5056558E-1,9.040156E-1,1.9658195E0,4.7322044E-1,4.1367117E-1,4.9887543E0,-7.6173997E0,2.8231722E-1,6.5976846E-1,1.6908987E0,1.3019883E1,4.295121E1,-1.6718054E0,-3.5850292E-1,2.2374055E0,-4.1170435E0,3.8682216E-1,-1.326124E0,6.114139E0,-6.7163205E-1,-1.3745999E1,-3.7187653E0,1.9567635E1,-2.749297E0],"split_indices":[1,1,1,1,1,1,0,1,1,0,0,1,0,1,1,0,0,1,1,0,0,0,0,1,1,1,1,1,1,1,1,0,0,0,1,0,0,1,0,0,0,0,0,1,0,0,1,0,1,1,1,1,1,1,1,1,1,1,1,0,0,0,0,0,0,0,0,0,0,0,0,0,0,0,0,0,0,0,0,0,0,0,0,0,0,0,0,0,0,0,0,0,0,0,0,0,0,0,0,0,0,0,0,0,0],"split_type":[0,0,0,0,0,0,0,0,0,0,0,0,0,0,0,0,0,0,0,0,0,0,0,0,0,0,0,0,0,0,0,0,0,0,0,0,0,0,0,0,0,0,0,0,0,0,0,0,0,0,0,0,0,0,0,0,0,0,0,0,0,0,0,0,0,0,0,0,0,0,0,0,0,0,0,0,0,0,0,0,0,0,0,0,0,0,0,0,0,0,0,0,0,0,0,0,0,0,0,0,0,0,0,0,0],"sum_hessian":[1.016493E6,8.65228E5,1.51265E5,1.26002E5,7.39226E5,1.15834E5,3.5431E4,1.15738E5,1.0264E4,6.49666E5,8.956E4,7.8062E4,3.7772E4,3.2678E4,2.753E3,7.8009E4,3.7729E4,1.0009E4,2.55E2,4.67782E5,1.81884E5,8.312E4,6.44E3,1.1648E4,6.6414E4,3.4915E4,2.857E3,3.2376E4,3.02E2,2.745E3,8E0,5.4087E4,2.3922E4,3.4846E4,2.883E3,6.871E3,3.138E3,2.1E2,4.5E1,1.35133E5,4.6751E4,6.2683E4,2.0437E4,1.1647E4,1E0,2E0,6.6412E4,2.38E4,1.1115E4,1.967E3,8.9E2,3.2372E4,4E0,2.8E2,2.2E1,2.74E3,5E0,6E0,2E0,1.6438E4,7.484E3,2.6836E4,8.01E3,2.48E2,2.635E3,4.966E3,1.905E3,2.687E3,4.51E2,2.07E2,3E0,3.7E1,8E0,1.22738E5,1.2395E4,1.4381E4,6.056E3,1.0681E4,9.66E2,1E0,6.6411E4,2.329E4,5.1E2,3.54E2,1.0761E4,1.963E3,4E0,1E0,8.89E2,3.1833E4,5.39E2,3E0,1E0,3E0,2.77E2,2E1,2E0,2.696E3,4.4E1,4E0,1E0,5E0,1E0,1E0,1E0],"tree_param":{"num_deleted":"0","num_feature":"2","num_nodes":"105","size_leaf_vector":"0"}}]},"name":"gbtree"},"learner_model_param":{"base_score":"5E-1","num_class":"0","num_feature":"2"},"objective":{"name":"reg:squarederror","reg_loss_param":{"scale_pos_weight":"1"}}},"version":[1,3,3]}